<?xml version="1.0"?>
<opencv_storage>
<cascade>
  <stageType>BOOST</stageType>
  <featureType>HAAR</featureType>
  <height>24</height>
  <width>36</width>
  <stageParams>
    <boostType>GAB</boostType>
    <minHitRate>9.9500000476837158e-01</minHitRate>
    <maxFalseAlarm>5.0000000000000000e-01</maxFalseAlarm>
    <weightTrimRate>9.4999998807907104e-01</weightTrimRate>
    <maxDepth>1</maxDepth>
    <maxWeakCount>100</maxWeakCount></stageParams>
  <featureParams>
    <maxCatCount>0</maxCatCount>
    <featSize>1</featSize>
    <mode>BASIC</mode></featureParams>
  <stageNum>6</stageNum>
  <stages>
    <!-- stage 0 -->
    <_>
      <maxWeakCount>2</maxWeakCount>
      <stageThreshold>1.7469683371018618e-04</stageThreshold>
      <weakClassifiers>
        <_>
          <internalNodes>
            0 -1 1 -5.3361415863037109e-02</internalNodes>
          <leafValues>
            1. -8.9743590354919434e-01</leafValues></_>
        <_>
          <internalNodes>
            0 -1 8 1.0959793813526630e-02</internalNodes>
          <leafValues>
            -1. 8.9761060476303101e-01</leafValues></_></weakClassifiers></_>
    <!-- stage 1 -->
    <_>
      <maxWeakCount>2</maxWeakCount>
      <stageThreshold>3.6083016544580460e-02</stageThreshold>
      <weakClassifiers>
        <_>
          <internalNodes>
            0 -1 9 -3.5553288180381060e-03</internalNodes>
          <leafValues>
            1. -8.9743590354919434e-01</leafValues></_>
        <_>
          <internalNodes>
            0 -1 10 -3.1631738238502294e-05</internalNodes>
          <leafValues>
            9.3351888656616211e-01 -8.5827094316482544e-01</leafValues></_></weakClassifiers></_>
    <!-- stage 2 -->
    <_>
      <maxWeakCount>3</maxWeakCount>
      <stageThreshold>-4.8544254899024963e-01</stageThreshold>
      <weakClassifiers>
        <_>
          <internalNodes>
            0 -1 5 -1.6416481137275696e-01</internalNodes>
          <leafValues>
            1. -7.4117648601531982e-01</leafValues></_>
        <_>
          <internalNodes>
            0 -1 3 -1.5512922406196594e-01</internalNodes>
          <leafValues>
            1. -5.4647630453109741e-01</leafValues></_>
        <_>
          <internalNodes>
            0 -1 0 2.8746114112436771e-03</internalNodes>
          <leafValues>
            -8.1746923923492432e-01 8.0221021175384521e-01</leafValues></_></weakClassifiers></_>
    <!-- stage 3 -->
    <_>
      <maxWeakCount>2</maxWeakCount>
      <stageThreshold>4.4083721935749054e-02</stageThreshold>
      <weakClassifiers>
        <_>
          <internalNodes>
            0 -1 4 -2.4696612358093262e-01</internalNodes>
          <leafValues>
            1. -7.2093021869659424e-01</leafValues></_>
        <_>
          <internalNodes>
            0 -1 7 -2.0226672291755676e-02</internalNodes>
          <leafValues>
            7.6501393318176270e-01 -8.6148923635482788e-01</leafValues></_></weakClassifiers></_>
    <!-- stage 4 -->
    <_>
      <maxWeakCount>2</maxWeakCount>
      <stageThreshold>-1.9057903438806534e-02</stageThreshold>
      <weakClassifiers>
        <_>
          <internalNodes>
            0 -1 12 7.2337279561907053e-04</internalNodes>
          <leafValues>
            -8.9743590354919434e-01 1.</leafValues></_>
        <_>
          <internalNodes>
            0 -1 11 -7.8838136687409133e-05</internalNodes>
          <leafValues>
            8.7837797403335571e-01 -1.</leafValues></_></weakClassifiers></_>
    <!-- stage 5 -->
    <_>
      <maxWeakCount>2</maxWeakCount>
      <stageThreshold>8.2191780209541321e-02</stageThreshold>
      <weakClassifiers>
        <_>
          <internalNodes>
            0 -1 2 -4.1932575404644012e-02</internalNodes>
          <leafValues>
            9.0123456716537476e-01 -9.1780823469161987e-01</leafValues></_>
        <_>
          <internalNodes>
            0 -1 6 -1.9731618463993073e-01</internalNodes>
          <leafValues>
            1. -7.7166301012039185e-01</leafValues></_></weakClassifiers></_></stages>
  <features>
    <_>
      <rects>
        <_>
          0 10 9 12 -1.</_>
        <_>
          3 10 3 12 3.</_></rects>
      <tilted>0</tilted></_>
    <_>
      <rects>
        <_>
          0 11 30 3 -1.</_>
        <_>
          10 11 10 3 3.</_></rects>
      <tilted>0</tilted></_>
    <_>
      <rects>
        <_>
          0 12 30 3 -1.</_>
        <_>
          10 12 10 3 3.</_></rects>
      <tilted>0</tilted></_>
    <_>
      <rects>
        <_>
          2 4 24 10 -1.</_>
        <_>
          10 4 8 10 3.</_></rects>
      <tilted>0</tilted></_>
    <_>
      <rects>
        <_>
          3 3 27 12 -1.</_>
        <_>
          12 3 9 12 3.</_></rects>
      <tilted>0</tilted></_>
    <_>
      <rects>
        <_>
          4 5 24 11 -1.</_>
        <_>
          12 5 8 11 3.</_></rects>
      <tilted>0</tilted></_>
    <_>
      <rects>
        <_>
          4 5 30 10 -1.</_>
        <_>
          14 5 10 10 3.</_></rects>
      <tilted>0</tilted></_>
    <_>
      <rects>
        <_>
          10 0 13 8 -1.</_>
        <_>
          10 4 13 4 2.</_></rects>
      <tilted>0</tilted></_>
    <_>
      <rects>
        <_>
          17 8 10 6 -1.</_>
        <_>
          22 8 5 6 2.</_></rects>
      <tilted>0</tilted></_>
    <_>
      <rects>
        <_>
          30 0 6 10 -1.</_>
        <_>
          33 0 3 10 2.</_></rects>
      <tilted>0</tilted></_>
    <_>
      <rects>
        <_>
          31 22 2 1 -1.</_>
        <_>
          32 22 1 1 2.</_></rects>
      <tilted>0</tilted></_>
    <_>
      <rects>
        <_>
          32 22 3 2 -1.</_>
        <_>
          32 23 3 1 2.</_></rects>
      <tilted>0</tilted></_>
    <_>
      <rects>
        <_>
          33 0 1 8 -1.</_>
        <_>
          33 4 1 4 2.</_></rects>
      <tilted>0</tilted></_></features></cascade>
</opencv_storage>
